<?xml version="1.0" encoding="UTF-8"?>
<BIF VERSION="0.3"  xmlns="http://www.cs.ubc.ca/labs/lci/fopi/ve/XMLBIFv0_3"
	xmlns:xsi="http://www.w3.org/2001/XMLSchema-instance"
	xsi:schemaLocation="http://www.cs.ubc.ca/labs/lci/fopi/ve/XMLBIFv0_3 http://www.cs.ubc.ca/labs/lci/fopi/ve/XMLBIFv0_3/XMLBIFv0_3.xsd">
<NETWORK>
<NAME>Untitled</NAME>
<PROPERTY>detailed = </PROPERTY>
<PROPERTY>short = </PROPERTY>

<VARIABLE TYPE="nature">
	<NAME>ar</NAME>
	<OUTCOME>T</OUTCOME>
	<OUTCOME>F</OUTCOME>
	<PROPERTY>position = (7541.79736328125, 5051.83056640625)</PROPERTY>
</VARIABLE>

<VARIABLE TYPE="nature">
	<NAME>te</NAME>
	<OUTCOME>T</OUTCOME>
	<OUTCOME>F</OUTCOME>
	<PROPERTY>position = (7097.86279296875, 5308.03271484375)</PROPERTY>
</VARIABLE>

<VARIABLE TYPE="nature">
	<NAME>ae</NAME>
	<OUTCOME>T</OUTCOME>
	<OUTCOME>F</OUTCOME>
	<PROPERTY>position = (7581.5537109375, 5396.3779296875)</PROPERTY>
</VARIABLE>

<VARIABLE TYPE="nature">
	<NAME>ah</NAME>
	<OUTCOME>T</OUTCOME>
	<OUTCOME>F</OUTCOME>
	<PROPERTY>position = (7848.7978515625, 5369.8740234375)</PROPERTY>
</VARIABLE>

<VARIABLE TYPE="nature">
	<NAME>dh</NAME>
	<OUTCOME>T</OUTCOME>
	<OUTCOME>F</OUTCOME>
	<PROPERTY>position = (7884.13671875, 5049.6220703125)</PROPERTY>
</VARIABLE>

<DEFINITION>
	<FOR>ar</FOR>
	<TABLE>0.001 0.999</TABLE>
</DEFINITION>

<DEFINITION>
	<FOR>te</FOR>
	<GIVEN>ar</GIVEN>
	<TABLE>1.0E-4 0.9999 0.01 0.99</TABLE>
</DEFINITION>

<DEFINITION>
	<FOR>ae</FOR>
	<GIVEN>ar</GIVEN>
	<GIVEN>te</GIVEN>
	<TABLE>0.1 0.9 0.99 0.01 0.99 0.01 1.0E-5 0.99999</TABLE>
</DEFINITION>

<DEFINITION>
	<FOR>ah</FOR>
	<GIVEN>ar</GIVEN>
	<GIVEN>dh</GIVEN>
	<TABLE>0.1 0.9 0.99 0.01 0.99 0.01 1.0E-5 0.99999</TABLE>
</DEFINITION>

<DEFINITION>
	<FOR>dh</FOR>
	<TABLE>0.01 0.99</TABLE>
</DEFINITION>
</NETWORK>
</BIF>
